"{"input_nodes":5,"hidden_nodes":10,"output_nodes":2,"weights_ih":{"rows":10,"cols":5,"data":[[0.4013758399493532,0.08130508824245103,-0.5190615041503259,0.4810690318122437,0.6255430724052299],[-0.626548426863745,0.571114517130355,0.5630823743668545,-0.4957964439054377,-0.3000221287523965],[-1.0512895087566094,-0.07316522914090337,-0.8141292543228442,0.8214623313135561,-0.125461233198365],[0.7911435675382792,0.35905627284688446,0.860531347489613,-1.018768066801602,-0.8594076523471661],[-0.1345138171359998,-0.504133874858084,0.7996871697006012,-0.4582014705252959,0.940611543120159],[0.6759578905247947,0.6235467499541584,0.39327816179468816,-0.6000599411677763,0.5655456060716659],[0.9193371803187184,0.9176918903550564,0.13752601025367717,0.1835287728792159,0.47403278121672343],[0.06934853553659068,0.4011921458536798,0.37295472492023907,-0.08257207185319065,0.42565947096432877],[-0.1345105525336558,0.792377044522079,-0.6833786565592489,0.05625659228413338,-0.9567704997004177],[0.5221883650941115,0.37991296608458663,0.7233634111310603,-0.9123524995805817,0.7556316919941554]]},"weights_ho":{"rows":2,"cols":10,"data":[[0.4103825453434689,0.16728992803999254,-0.9539555241584211,0.6655332081022223,0.21630060653865657,0.33553127718547454,0.8238305404314219,0.17040464449171128,-0.8309526699600752,-0.5501384266516651],[-0.6928360908257696,-0.44272206337554953,0.3067015896057515,-0.9013563438061709,-0.039632077422375345,0.7399932196304115,-1.0935628063995493,0.9450206599990071,0.7175034997423804,0.40962564617207137]]},"bias_h":{"rows":10,"cols":1,"data":[[0.6629086923382517],[-0.45041517633977646],[0.6994847176480464],[0.47920819326504427],[-0.2929084729709546],[-0.5895066823809508],[0.13217199642632935],[0.24298096820113935],[0.3308642125315702],[-0.7066452076019001]]},"bias_o":{"rows":2,"cols":1,"data":[[-0.4805312986469783],[0.6787335655306724]]},"learning_rate":0.1,"activation_function":{}}"